<?xml version="1.0"?>
<opencv_storage>
<cascade>
  <stageType>BOOST</stageType>
  <featureType>HAAR</featureType>
  <height>20</height>
  <width>20</width>
  <stageParams>
    <boostType>GAB</boostType>
    <minHitRate>9.9900001287460327e-01</minHitRate>
    <maxFalseAlarm>5.0000000745058060e-02</maxFalseAlarm>
    <weightTrimRate>9.4999999999999996e-01</weightTrimRate>
    <maxDepth>1</maxDepth>
    <maxWeakCount>100</maxWeakCount></stageParams>
  <featureParams>
    <maxCatCount>0</maxCatCount>
    <featSize>1</featSize>
    <mode>ALL</mode></featureParams>
  <stageNum>2</stageNum>
  <stages>
    <!-- stage 0 -->
    <_>
      <maxWeakCount>7</maxWeakCount>
      <stageThreshold>-6.7935580015182495e-01</stageThreshold>
      <weakClassifiers>
        <_>
          <internalNodes>
            0 -1 9 2.4985228665173054e-03</internalNodes>
          <leafValues>
            -6.5186500549316406e-01 8.3981692790985107e-01</leafValues></_>
        <_>
          <internalNodes>
            0 -1 6 4.2855907231569290e-03</internalNodes>
          <leafValues>
            -6.0995781421661377e-01 9.0175396203994751e-01</leafValues></_>
        <_>
          <internalNodes>
            0 -1 7 1.1096823029220104e-02</internalNodes>
          <leafValues>
            -8.7217432260513306e-01 5.8752405643463135e-01</leafValues></_>
        <_>
          <internalNodes>
            0 -1 0 1.5757642686367035e-02</internalNodes>
          <leafValues>
            -9.3486946821212769e-01 4.2677098512649536e-01</leafValues></_>
        <_>
          <internalNodes>
            0 -1 4 -2.5922410190105438e-02</internalNodes>
          <leafValues>
            9.6629506349563599e-01 -5.1435792446136475e-01</leafValues></_>
        <_>
          <internalNodes>
            0 -1 3 -2.1474560722708702e-02</internalNodes>
          <leafValues>
            9.8495489358901978e-01 -5.4088151454925537e-01</leafValues></_>
        <_>
          <internalNodes>
            0 -1 1 7.1857692673802376e-03</internalNodes>
          <leafValues>
            -9.5666170120239258e-01 6.0245686769485474e-01</leafValues></_></weakClassifiers></_>
    <!-- stage 1 -->
    <_>
      <maxWeakCount>8</maxWeakCount>
      <stageThreshold>1.2683156132698059e-01</stageThreshold>
      <weakClassifiers>
        <_>
          <internalNodes>
            0 -1 11 3.9240717887878418e-03</internalNodes>
          <leafValues>
            -5.8564436435699463e-01 9.2764860391616821e-01</leafValues></_>
        <_>
          <internalNodes>
            0 -1 2 -1.8191647541243583e-05</internalNodes>
          <leafValues>
            -9.9227541685104370e-01 5.7225316762924194e-01</leafValues></_>
        <_>
          <internalNodes>
            0 -1 5 1.9599594175815582e-02</internalNodes>
          <leafValues>
            -6.3776606321334839e-01 8.7828731536865234e-01</leafValues></_>
        <_>
          <internalNodes>
            0 -1 12 -6.2760617583990097e-03</internalNodes>
          <leafValues>
            9.6309334039688110e-01 -4.7887101769447327e-01</leafValues></_>
        <_>
          <internalNodes>
            0 -1 2 4.3983091018162668e-05</internalNodes>
          <leafValues>
            5.0880497694015503e-01 -9.7356629371643066e-01</leafValues></_>
        <_>
          <internalNodes>
            0 -1 2 -5.7890523748937994e-05</internalNodes>
          <leafValues>
            -9.9642831087112427e-01 4.0641948580741882e-01</leafValues></_>
        <_>
          <internalNodes>
            0 -1 8 1.7845556139945984e-02</internalNodes>
          <leafValues>
            -5.2855896949768066e-01 1.</leafValues></_>
        <_>
          <internalNodes>
            0 -1 10 -1.6863346099853516e-02</internalNodes>
          <leafValues>
            9.8652160167694092e-01 -5.7177001237869263e-01</leafValues></_></weakClassifiers></_></stages>
  <features>
    <_>
      <rects>
        <_>
          0 0 20 5 -1.</_>
        <_>
          5 0 10 5 2.</_></rects>
      <tilted>0</tilted></_>
    <_>
      <rects>
        <_>
          0 0 9 6 -1.</_>
        <_>
          0 3 9 3 2.</_></rects>
      <tilted>0</tilted></_>
    <_>
      <rects>
        <_>
          2 0 1 2 -1.</_>
        <_>
          2 0 1 1 2.</_></rects>
      <tilted>1</tilted></_>
    <_>
      <rects>
        <_>
          2 8 12 2 -1.</_>
        <_>
          2 8 6 1 2.</_>
        <_>
          8 9 6 1 2.</_></rects>
      <tilted>0</tilted></_>
    <_>
      <rects>
        <_>
          5 10 3 3 -1.</_>
        <_>
          6 11 1 1 9.</_></rects>
      <tilted>0</tilted></_>
    <_>
      <rects>
        <_>
          5 11 3 3 -1.</_>
        <_>
          6 12 1 1 9.</_></rects>
      <tilted>0</tilted></_>
    <_>
      <rects>
        <_>
          7 6 3 1 -1.</_>
        <_>
          8 6 1 1 3.</_></rects>
      <tilted>0</tilted></_>
    <_>
      <rects>
        <_>
          8 0 12 19 -1.</_>
        <_>
          11 0 6 19 2.</_></rects>
      <tilted>0</tilted></_>
    <_>
      <rects>
        <_>
          9 6 3 2 -1.</_>
        <_>
          10 6 1 2 3.</_></rects>
      <tilted>0</tilted></_>
    <_>
      <rects>
        <_>
          9 10 1 2 -1.</_>
        <_>
          9 11 1 1 2.</_></rects>
      <tilted>0</tilted></_>
    <_>
      <rects>
        <_>
          10 3 2 10 -1.</_>
        <_>
          10 3 1 5 2.</_>
        <_>
          11 8 1 5 2.</_></rects>
      <tilted>0</tilted></_>
    <_>
      <rects>
        <_>
          10 13 3 1 -1.</_>
        <_>
          11 13 1 1 3.</_></rects>
      <tilted>0</tilted></_>
    <_>
      <rects>
        <_>
          14 10 1 3 -1.</_>
        <_>
          14 11 1 1 3.</_></rects>
      <tilted>0</tilted></_></features></cascade>
</opencv_storage>
