<?xml version="1.0"?>
<opencv_storage>
<stage0>
  <maxWeakCount>7</maxWeakCount>
  <stageThreshold>-6.7935580015182495e-01</stageThreshold>
  <weakClassifiers>
    <_>
      <internalNodes>
        0 -1 85394 2.4985228665173054e-03</internalNodes>
      <leafValues>
        -6.5186500549316406e-01 8.3981692790985107e-01</leafValues></_>
    <_>
      <internalNodes>
        0 -1 68325 4.2855907231569290e-03</internalNodes>
      <leafValues>
        -6.0995781421661377e-01 9.0175396203994751e-01</leafValues></_>
    <_>
      <internalNodes>
        0 -1 72474 1.1096823029220104e-02</internalNodes>
      <leafValues>
        -8.7217432260513306e-01 5.8752405643463135e-01</leafValues></_>
    <_>
      <internalNodes>
        0 -1 424 1.5757642686367035e-02</internalNodes>
      <leafValues>
        -9.3486946821212769e-01 4.2677098512649536e-01</leafValues></_>
    <_>
      <internalNodes>
        0 -1 53719 -2.5922410190105438e-02</internalNodes>
      <leafValues>
        9.6629506349563599e-01 -5.1435792446136475e-01</leafValues></_>
    <_>
      <internalNodes>
        0 -1 25789 -2.1474560722708702e-02</internalNodes>
      <leafValues>
        9.8495489358901978e-01 -5.4088151454925537e-01</leafValues></_>
    <_>
      <internalNodes>
        0 -1 675 7.1857692673802376e-03</internalNodes>
      <leafValues>
        -9.5666170120239258e-01 6.0245686769485474e-01</leafValues></_></weakClassifiers></stage0>
</opencv_storage>
